digraph Tree {
node [shape=box, style="filled, rounded", color="black", fontname=helvetica] ;
edge [fontname=helvetica] ;
0 [label="бпВраждебность <= 15.5\ngini = 0.7025\nsamples = 65\nvalue = [4, 21, 20, 20]\nclass = км=2", fillcolor="#47e53906"] ;
1 [label="бпВраждебность <= 10.5\ngini = 0.3875\nsamples = 17\nvalue = [0, 2, 13, 2]\nclass = км=3", fillcolor="#399de5bb"] ;
0 -> 1 [labeldistance=2.5, labelangle=45, headlabel="True"] ;
2 [label="бпВраждебность <= 9.5\ngini = 0.5\nsamples = 2\nvalue = [0, 1, 0, 1]\nclass = км=2", fillcolor="#47e53900"] ;
1 -> 2 ;
3 [label="gini = 0.0\nsamples = 1\nvalue = [0, 0, 0, 1]\nclass = км=4", fillcolor="#d739e5ff"] ;
2 -> 3 ;
4 [label="gini = 0.0\nsamples = 1\nvalue = [0, 1, 0, 0]\nclass = км=2", fillcolor="#47e539ff"] ;
2 -> 4 ;
5 [label="САМОУТВЕРЖДЕНИЕ <= 18.0\ngini = 0.24\nsamples = 15\nvalue = [0, 1, 13, 1]\nclass = км=3", fillcolor="#399de5db"] ;
1 -> 5 ;
6 [label="бпГнев <= 21.5\ngini = 0.1327\nsamples = 14\nvalue = [0, 1, 13, 0]\nclass = км=3", fillcolor="#399de5eb"] ;
5 -> 6 ;
7 [label="gini = 0.0\nsamples = 13\nvalue = [0, 0, 13, 0]\nclass = км=3", fillcolor="#399de5ff"] ;
6 -> 7 ;
8 [label="gini = 0.0\nsamples = 1\nvalue = [0, 1, 0, 0]\nclass = км=2", fillcolor="#47e539ff"] ;
6 -> 8 ;
9 [label="gini = 0.0\nsamples = 1\nvalue = [0, 0, 0, 1]\nclass = км=4", fillcolor="#d739e5ff"] ;
5 -> 9 ;
10 [label="Конформизм <= 4.5\ngini = 0.6745\nsamples = 48\nvalue = [4, 19, 7, 18]\nclass = км=2", fillcolor="#47e53908"] ;
0 -> 10 [labeldistance=2.5, labelangle=-45, headlabel="False"] ;
11 [label="ОШКМ <= 105.0\ngini = 0.4444\nsamples = 9\nvalue = [0, 3, 6, 0]\nclass = км=3", fillcolor="#399de57f"] ;
10 -> 11 ;
12 [label="gini = 0.0\nsamples = 6\nvalue = [0, 0, 6, 0]\nclass = км=3", fillcolor="#399de5ff"] ;
11 -> 12 ;
13 [label="gini = 0.0\nsamples = 3\nvalue = [0, 3, 0, 0]\nclass = км=2", fillcolor="#47e539ff"] ;
11 -> 13 ;
14 [label="бпГнев <= 26.5\ngini = 0.6075\nsamples = 39\nvalue = [4, 16, 1, 18]\nclass = км=4", fillcolor="#d739e516"] ;
10 -> 14 ;
15 [label="Конформизм <= 8.5\ngini = 0.5536\nsamples = 31\nvalue = [2, 10, 1, 18]\nclass = км=4", fillcolor="#d739e561"] ;
14 -> 15 ;
16 [label="Риск-новизна <= 9.5\ngini = 0.3203\nsamples = 16\nvalue = [2, 1, 0, 13]\nclass = км=4", fillcolor="#d739e5c8"] ;
15 -> 16 ;
17 [label="Благожелательность <= 4.5\ngini = 0.2311\nsamples = 15\nvalue = [2, 0, 0, 13]\nclass = км=4", fillcolor="#d739e5d8"] ;
16 -> 17 ;
18 [label="gini = 0.0\nsamples = 1\nvalue = [1, 0, 0, 0]\nclass = км=1", fillcolor="#e58139ff"] ;
17 -> 18 ;
19 [label="ОШКМ <= 89.5\ngini = 0.1327\nsamples = 14\nvalue = [1, 0, 0, 13]\nclass = км=4", fillcolor="#d739e5eb"] ;
17 -> 19 ;
20 [label="gini = 0.0\nsamples = 1\nvalue = [1, 0, 0, 0]\nclass = км=1", fillcolor="#e58139ff"] ;
19 -> 20 ;
21 [label="gini = 0.0\nsamples = 13\nvalue = [0, 0, 0, 13]\nclass = км=4", fillcolor="#d739e5ff"] ;
19 -> 21 ;
22 [label="gini = 0.0\nsamples = 1\nvalue = [0, 1, 0, 0]\nclass = км=2", fillcolor="#47e539ff"] ;
16 -> 22 ;
23 [label="ШЭМ <= 41.0\ngini = 0.5244\nsamples = 15\nvalue = [0, 9, 1, 5]\nclass = км=2", fillcolor="#47e53966"] ;
15 -> 23 ;
24 [label="бпВраждебность <= 25.0\ngini = 0.4028\nsamples = 12\nvalue = [0, 9, 1, 2]\nclass = км=2", fillcolor="#47e539b2"] ;
23 -> 24 ;
25 [label="ШЭС <= 105.5\ngini = 0.18\nsamples = 10\nvalue = [0, 9, 0, 1]\nclass = км=2", fillcolor="#47e539e3"] ;
24 -> 25 ;
26 [label="gini = 0.0\nsamples = 9\nvalue = [0, 9, 0, 0]\nclass = км=2", fillcolor="#47e539ff"] ;
25 -> 26 ;
27 [label="gini = 0.0\nsamples = 1\nvalue = [0, 0, 0, 1]\nclass = км=4", fillcolor="#d739e5ff"] ;
25 -> 27 ;
28 [label="САМОУТВЕРЖДЕНИЕ <= 10.0\ngini = 0.5\nsamples = 2\nvalue = [0, 0, 1, 1]\nclass = км=3", fillcolor="#399de500"] ;
24 -> 28 ;
29 [label="gini = 0.0\nsamples = 1\nvalue = [0, 0, 1, 0]\nclass = км=3", fillcolor="#399de5ff"] ;
28 -> 29 ;
30 [label="gini = 0.0\nsamples = 1\nvalue = [0, 0, 0, 1]\nclass = км=4", fillcolor="#d739e5ff"] ;
28 -> 30 ;
31 [label="gini = 0.0\nsamples = 3\nvalue = [0, 0, 0, 3]\nclass = км=4", fillcolor="#d739e5ff"] ;
23 -> 31 ;
32 [label="ШКМ <= 42.0\ngini = 0.375\nsamples = 8\nvalue = [2, 6, 0, 0]\nclass = км=2", fillcolor="#47e539aa"] ;
14 -> 32 ;
33 [label="Власть-Богатство <= 7.0\ngini = 0.4444\nsamples = 3\nvalue = [2, 1, 0, 0]\nclass = км=1", fillcolor="#e581397f"] ;
32 -> 33 ;
34 [label="gini = 0.0\nsamples = 1\nvalue = [0, 1, 0, 0]\nclass = км=2", fillcolor="#47e539ff"] ;
33 -> 34 ;
35 [label="gini = 0.0\nsamples = 2\nvalue = [2, 0, 0, 0]\nclass = км=1", fillcolor="#e58139ff"] ;
33 -> 35 ;
36 [label="gini = 0.0\nsamples = 5\nvalue = [0, 5, 0, 0]\nclass = км=2", fillcolor="#47e539ff"] ;
32 -> 36 ;
}